<?xml version="1.0"?>
<opencv_storage>
<!-- Created using Computer Vision Toolbox(tm) for MATLAB(R) -->
<!-- Version 24.1.0.2603908 (R2024a) Update 3 -->
<!-- Compatible with OpenCV 4.7 -->
<cascade>
  <stageType>BOOST</stageType>
  <featureType>HOG</featureType>
  <height>32</height>
  <width>132</width>
  <stageParams>
    <boostType>GAB</boostType>
    <minHitRate>9.9500000476837158e-01</minHitRate>
    <maxFalseAlarm>2.5000000372529030e-02</maxFalseAlarm>
    <weightTrimRate>9.4999999999999996e-01</weightTrimRate>
    <maxDepth>1</maxDepth>
    <maxWeakCount>100</maxWeakCount></stageParams>
  <featureParams>
    <maxCatCount>0</maxCatCount>
    <featSize>36</featSize></featureParams>
  <stageNum>4</stageNum>
  <stages>
    <!-- stage 0 -->
    <_>
      <maxWeakCount>3</maxWeakCount>
      <stageThreshold>4.6950605511665344e-01</stageThreshold>
      <weakClassifiers>
        <_>
          <internalNodes>
            0 -1 13 6.1857841908931732e-02</internalNodes>
          <leafValues>
            -9.7139453887939453e-01 9.2037469148635864e-01</leafValues></_>
        <_>
          <internalNodes>
            0 -1 34 3.7810675799846649e-02</internalNodes>
          <leafValues>
            -1. 7.3872613906860352e-01</leafValues></_>
        <_>
          <internalNodes>
            0 -1 33 4.5319713652133942e-02</internalNodes>
          <leafValues>
            -9.4938784837722778e-01 7.0217442512512207e-01</leafValues></_></weakClassifiers></_>
    <!-- stage 1 -->
    <_>
      <maxWeakCount>9</maxWeakCount>
      <stageThreshold>-4.0235993266105652e-01</stageThreshold>
      <weakClassifiers>
        <_>
          <internalNodes>
            0 -1 25 1.0118460655212402e-01</internalNodes>
          <leafValues>
            -8.2793015241622925e-01 5.2155172824859619e-01</leafValues></_>
        <_>
          <internalNodes>
            0 -1 22 7.6561279594898224e-02</internalNodes>
          <leafValues>
            -8.3387041091918945e-01 5.5129963159561157e-01</leafValues></_>
        <_>
          <internalNodes>
            0 -1 20 6.0576241463422775e-02</internalNodes>
          <leafValues>
            -7.4019187688827515e-01 5.2156913280487061e-01</leafValues></_>
        <_>
          <internalNodes>
            0 -1 11 3.0369084328413010e-02</internalNodes>
          <leafValues>
            7.4106502532958984e-01 -6.2184280157089233e-01</leafValues></_>
        <_>
          <internalNodes>
            0 -1 37 5.1996082067489624e-02</internalNodes>
          <leafValues>
            -8.2848769426345825e-01 4.6090686321258545e-01</leafValues></_>
        <_>
          <internalNodes>
            0 -1 17 5.5904325097799301e-02</internalNodes>
          <leafValues>
            5.7151544094085693e-01 -6.8300300836563110e-01</leafValues></_>
        <_>
          <internalNodes>
            0 -1 2 7.9652041196823120e-02</internalNodes>
          <leafValues>
            -7.0612949132919312e-01 4.7999978065490723e-01</leafValues></_>
        <_>
          <internalNodes>
            0 -1 3 2.6475381106138229e-02</internalNodes>
          <leafValues>
            -7.0859807729721069e-01 4.5466497540473938e-01</leafValues></_>
        <_>
          <internalNodes>
            0 -1 28 2.7655743062496185e-02</internalNodes>
          <leafValues>
            4.8379307985305786e-01 -6.1179965734481812e-01</leafValues></_></weakClassifiers></_>
    <!-- stage 2 -->
    <_>
      <maxWeakCount>11</maxWeakCount>
      <stageThreshold>4.6233426779508591e-02</stageThreshold>
      <weakClassifiers>
        <_>
          <internalNodes>
            0 -1 36 5.1862277090549469e-02</internalNodes>
          <leafValues>
            -9.0844064950942993e-01 3.7566137313842773e-01</leafValues></_>
        <_>
          <internalNodes>
            0 -1 12 6.0447476804256439e-02</internalNodes>
          <leafValues>
            -8.7055134773254395e-01 3.9983633160591125e-01</leafValues></_>
        <_>
          <internalNodes>
            0 -1 9 4.6511910855770111e-02</internalNodes>
          <leafValues>
            -8.2077014446258545e-01 3.5208329558372498e-01</leafValues></_>
        <_>
          <internalNodes>
            0 -1 29 6.6684663295745850e-02</internalNodes>
          <leafValues>
            -7.1490448713302612e-01 4.3115770816802979e-01</leafValues></_>
        <_>
          <internalNodes>
            0 -1 4 4.1204962879419327e-02</internalNodes>
          <leafValues>
            -7.4527555704116821e-01 4.4035854935646057e-01</leafValues></_>
        <_>
          <internalNodes>
            0 -1 0 4.5566435903310776e-02</internalNodes>
          <leafValues>
            -9.2407619953155518e-01 2.8022021055221558e-01</leafValues></_>
        <_>
          <internalNodes>
            0 -1 10 4.3099157512187958e-02</internalNodes>
          <leafValues>
            -8.8754034042358398e-01 2.8322657942771912e-01</leafValues></_>
        <_>
          <internalNodes>
            0 -1 38 3.2505579292774200e-02</internalNodes>
          <leafValues>
            3.2623434066772461e-01 -6.5834152698516846e-01</leafValues></_>
        <_>
          <internalNodes>
            0 -1 18 2.8770547360181808e-02</internalNodes>
          <leafValues>
            -8.5492640733718872e-01 3.3152511715888977e-01</leafValues></_>
        <_>
          <internalNodes>
            0 -1 6 4.6296201646327972e-02</internalNodes>
          <leafValues>
            -7.6822298765182495e-01 2.1925984323024750e-01</leafValues></_>
        <_>
          <internalNodes>
            0 -1 31 5.4086386226117611e-03</internalNodes>
          <leafValues>
            -8.3607292175292969e-01 2.4914339184761047e-01</leafValues></_></weakClassifiers></_>
    <!-- stage 3 -->
    <_>
      <maxWeakCount>16</maxWeakCount>
      <stageThreshold>1.3406227529048920e-01</stageThreshold>
      <weakClassifiers>
        <_>
          <internalNodes>
            0 -1 30 8.1906363368034363e-02</internalNodes>
          <leafValues>
            -3.1555554270744324e-01 7.6923078298568726e-01</leafValues></_>
        <_>
          <internalNodes>
            0 -1 16 1.8296301364898682e-02</internalNodes>
          <leafValues>
            5.8969366550445557e-01 -5.4631966352462769e-01</leafValues></_>
        <_>
          <internalNodes>
            0 -1 27 3.3352054655551910e-02</internalNodes>
          <leafValues>
            -6.7256945371627808e-01 3.5451340675354004e-01</leafValues></_>
        <_>
          <internalNodes>
            0 -1 14 7.7049747109413147e-02</internalNodes>
          <leafValues>
            -5.1483613252639771e-01 4.1280895471572876e-01</leafValues></_>
        <_>
          <internalNodes>
            0 -1 21 9.7393773496150970e-02</internalNodes>
          <leafValues>
            -5.5186641216278076e-01 4.4499483704566956e-01</leafValues></_>
        <_>
          <internalNodes>
            0 -1 7 2.9959216713905334e-02</internalNodes>
          <leafValues>
            3.6431357264518738e-01 -5.9017425775527954e-01</leafValues></_>
        <_>
          <internalNodes>
            0 -1 24 2.4703692644834518e-02</internalNodes>
          <leafValues>
            1.6579706966876984e-01 -9.8565858602523804e-01</leafValues></_>
        <_>
          <internalNodes>
            0 -1 23 2.8964933007955551e-02</internalNodes>
          <leafValues>
            3.1634297966957092e-01 -5.9835183620452881e-01</leafValues></_>
        <_>
          <internalNodes>
            0 -1 1 2.3633353412151337e-02</internalNodes>
          <leafValues>
            -8.9503484964370728e-01 2.3474298417568207e-01</leafValues></_>
        <_>
          <internalNodes>
            0 -1 19 1.6840906441211700e-01</internalNodes>
          <leafValues>
            -2.9082560539245605e-01 7.0070421695709229e-01</leafValues></_>
        <_>
          <internalNodes>
            0 -1 35 6.2878787517547607e-02</internalNodes>
          <leafValues>
            2.5483897328376770e-01 -7.9007446765899658e-01</leafValues></_>
        <_>
          <internalNodes>
            0 -1 5 5.9460802003741264e-03</internalNodes>
          <leafValues>
            -5.2257609367370605e-01 3.6083039641380310e-01</leafValues></_>
        <_>
          <internalNodes>
            0 -1 15 2.0781736820936203e-02</internalNodes>
          <leafValues>
            3.5866668820381165e-01 -5.9205341339111328e-01</leafValues></_>
        <_>
          <internalNodes>
            0 -1 32 4.3790493160486221e-02</internalNodes>
          <leafValues>
            -6.8929356336593628e-01 2.9106414318084717e-01</leafValues></_>
        <_>
          <internalNodes>
            0 -1 8 2.9667619615793228e-02</internalNodes>
          <leafValues>
            -8.3499461412429810e-01 1.8186037242412567e-01</leafValues></_>
        <_>
          <internalNodes>
            0 -1 26 5.5753579363226891e-03</internalNodes>
          <leafValues>
            -5.3212428092956543e-01 3.4157976508140564e-01</leafValues></_></weakClassifiers></_></stages>
  <features>
    <_>
      <rect>
        40 12 8 8 3</rect></_>
    <_>
      <rect>
        44 8 8 8 31</rect></_>
    <_>
      <rect>
        48 8 8 8 12</rect></_>
    <_>
      <rect>
        52 12 8 8 21</rect></_>
    <_>
      <rect>
        68 4 8 8 3</rect></_>
    <_>
      <rect>
        76 0 8 8 7</rect></_>
    <_>
      <rect>
        80 8 8 8 30</rect></_>
    <_>
      <rect>
        116 8 8 8 31</rect></_>
    <_>
      <rect>
        12 0 8 16 31</rect></_>
    <_>
      <rect>
        52 0 8 16 22</rect></_>
    <_>
      <rect>
        68 0 8 16 30</rect></_>
    <_>
      <rect>
        0 0 16 8 22</rect></_>
    <_>
      <rect>
        0 16 16 8 12</rect></_>
    <_>
      <rect>
        12 4 16 8 30</rect></_>
    <_>
      <rect>
        16 12 16 8 31</rect></_>
    <_>
      <rect>
        20 0 16 8 11</rect></_>
    <_>
      <rect>
        28 0 16 8 4</rect></_>
    <_>
      <rect>
        28 0 16 8 22</rect></_>
    <_>
      <rect>
        28 12 16 8 22</rect></_>
    <_>
      <rect>
        32 4 16 8 21</rect></_>
    <_>
      <rect>
        36 12 16 8 22</rect></_>
    <_>
      <rect>
        40 0 16 8 30</rect></_>
    <_>
      <rect>
        44 8 16 8 3</rect></_>
    <_>
      <rect>
        64 16 16 8 31</rect></_>
    <_>
      <rect>
        84 4 16 8 19</rect></_>
    <_>
      <rect>
        88 16 16 8 3</rect></_>
    <_>
      <rect>
        92 12 16 8 26</rect></_>
    <_>
      <rect>
        92 16 16 8 2</rect></_>
    <_>
      <rect>
        100 0 16 8 13</rect></_>
    <_>
      <rect>
        100 4 16 8 21</rect></_>
    <_>
      <rect>
        100 8 16 8 4</rect></_>
    <_>
      <rect>
        100 8 16 8 5</rect></_>
    <_>
      <rect>
        80 0 16 16 4</rect></_>
    <_>
      <rect>
        24 0 32 16 12</rect></_>
    <_>
      <rect>
        28 0 32 16 30</rect></_>
    <_>
      <rect>
        48 0 32 16 31</rect></_>
    <_>
      <rect>
        56 0 32 16 13</rect></_>
    <_>
      <rect>
        68 0 32 16 21</rect></_>
    <_>
      <rect>
        68 0 32 16 31</rect></_></features></cascade>
</opencv_storage>
